digraph Tree {
node [shape=box, style="filled, rounded", color="black", fontname=helvetica] ;
edge [fontname=helvetica] ;
0 [label="pca_1 <= 9.95\ngini = 0.8\nsamples = 374\nvalue = [115, 101, 117, 120, 125]\nclass = COAD", fillcolor="#e539c003"] ;
1 [label="pca_9 <= 3.56\ngini = 0.75\nsamples = 295\nvalue = [115, 101, 0, 120, 125]\nclass = COAD", fillcolor="#e539c004"] ;
0 -> 1 [labeldistance=2.5, labelangle=45, headlabel="True"] ;
2 [label="pca_5 <= 6.73\ngini = 0.74\nsamples = 206\nvalue = [86, 83, 0, 54, 102]\nclass = COAD", fillcolor="#e539c011"] ;
1 -> 2 ;
3 [label="pca_8 <= 6.09\ngini = 0.67\nsamples = 131\nvalue = [64, 7, 0, 52, 94]\nclass = COAD", fillcolor="#e539c032"] ;
2 -> 3 ;
4 [label="pca_4 <= -11.89\ngini = 0.62\nsamples = 106\nvalue = [47, 5, 0, 31, 92]\nclass = COAD", fillcolor="#e539c05a"] ;
3 -> 4 ;
5 [label="gini = 0.0\nsamples = 22\nvalue = [0, 0, 0, 28, 0]\nclass = KIRC", fillcolor="#3c39e5ff"] ;
4 -> 5 ;
6 [label="pca_2 <= -9.72\ngini = 0.5\nsamples = 84\nvalue = [47, 5, 0, 3, 92]\nclass = COAD", fillcolor="#e539c073"] ;
4 -> 6 ;
7 [label="gini = 0.0\nsamples = 50\nvalue = [0, 0, 0, 0, 92]\nclass = COAD", fillcolor="#e539c0ff"] ;
6 -> 7 ;
8 [label="pca_1 <= -7.57\ngini = 0.26\nsamples = 34\nvalue = [47, 5, 0, 3, 0]\nclass = PRAD", fillcolor="#e58139d6"] ;
6 -> 8 ;
9 [label="gini = 0.0\nsamples = 29\nvalue = [46, 0, 0, 0, 0]\nclass = PRAD", fillcolor="#e58139ff"] ;
8 -> 9 ;
10 [label="pca_9 <= -9.03\ngini = 0.57\nsamples = 5\nvalue = [1, 5, 0, 3, 0]\nclass = LUAD", fillcolor="#7be53955"] ;
8 -> 10 ;
11 [label="pca_13 <= 2.03\ngini = 0.38\nsamples = 2\nvalue = [1, 0, 0, 3, 0]\nclass = KIRC", fillcolor="#3c39e5aa"] ;
10 -> 11 ;
12 [label="gini = 0.0\nsamples = 1\nvalue = [1, 0, 0, 0, 0]\nclass = PRAD", fillcolor="#e58139ff"] ;
11 -> 12 ;
13 [label="gini = 0.0\nsamples = 1\nvalue = [0, 0, 0, 3, 0]\nclass = KIRC", fillcolor="#3c39e5ff"] ;
11 -> 13 ;
14 [label="gini = 0.0\nsamples = 3\nvalue = [0, 5, 0, 0, 0]\nclass = LUAD", fillcolor="#7be539ff"] ;
10 -> 14 ;
15 [label="pca_4 <= -17.34\ngini = 0.58\nsamples = 25\nvalue = [17, 2, 0, 21, 2]\nclass = KIRC", fillcolor="#3c39e529"] ;
3 -> 15 ;
16 [label="gini = 0.0\nsamples = 14\nvalue = [0, 0, 0, 21, 0]\nclass = KIRC", fillcolor="#3c39e5ff"] ;
15 -> 16 ;
17 [label="pca_1 <= -6.82\ngini = 0.33\nsamples = 11\nvalue = [17, 2, 0, 0, 2]\nclass = PRAD", fillcolor="#e58139c9"] ;
15 -> 17 ;
18 [label="pca_2 <= -17.86\ngini = 0.19\nsamples = 10\nvalue = [17, 0, 0, 0, 2]\nclass = PRAD", fillcolor="#e58139e1"] ;
17 -> 18 ;
19 [label="gini = 0.0\nsamples = 2\nvalue = [0, 0, 0, 0, 2]\nclass = COAD", fillcolor="#e539c0ff"] ;
18 -> 19 ;
20 [label="gini = 0.0\nsamples = 8\nvalue = [17, 0, 0, 0, 0]\nclass = PRAD", fillcolor="#e58139ff"] ;
18 -> 20 ;
21 [label="gini = 0.0\nsamples = 1\nvalue = [0, 2, 0, 0, 0]\nclass = LUAD", fillcolor="#7be539ff"] ;
17 -> 21 ;
22 [label="pca_2 <= 0.43\ngini = 0.46\nsamples = 75\nvalue = [22, 76, 0, 2, 8]\nclass = LUAD", fillcolor="#7be539a0"] ;
2 -> 22 ;
23 [label="pca_2 <= -20.07\ngini = 0.41\nsamples = 20\nvalue = [20, 0, 0, 0, 8]\nclass = PRAD", fillcolor="#e5813999"] ;
22 -> 23 ;
24 [label="gini = 0.0\nsamples = 5\nvalue = [0, 0, 0, 0, 8]\nclass = COAD", fillcolor="#e539c0ff"] ;
23 -> 24 ;
25 [label="gini = 0.0\nsamples = 15\nvalue = [20, 0, 0, 0, 0]\nclass = PRAD", fillcolor="#e58139ff"] ;
23 -> 25 ;
26 [label="pca_18 <= 6.69\ngini = 0.1\nsamples = 55\nvalue = [2, 76, 0, 2, 0]\nclass = LUAD", fillcolor="#7be539f2"] ;
22 -> 26 ;
27 [label="pca_1 <= 6.13\ngini = 0.05\nsamples = 52\nvalue = [0, 75, 0, 2, 0]\nclass = LUAD", fillcolor="#7be539f8"] ;
26 -> 27 ;
28 [label="gini = 0.0\nsamples = 47\nvalue = [0, 71, 0, 0, 0]\nclass = LUAD", fillcolor="#7be539ff"] ;
27 -> 28 ;
29 [label="pca_4 <= -21.3\ngini = 0.44\nsamples = 5\nvalue = [0, 4, 0, 2, 0]\nclass = LUAD", fillcolor="#7be5397f"] ;
27 -> 29 ;
30 [label="gini = 0.0\nsamples = 2\nvalue = [0, 0, 0, 2, 0]\nclass = KIRC", fillcolor="#3c39e5ff"] ;
29 -> 30 ;
31 [label="gini = 0.0\nsamples = 3\nvalue = [0, 4, 0, 0, 0]\nclass = LUAD", fillcolor="#7be539ff"] ;
29 -> 31 ;
32 [label="pca_1 <= -7.6\ngini = 0.44\nsamples = 3\nvalue = [2, 1, 0, 0, 0]\nclass = PRAD", fillcolor="#e581397f"] ;
26 -> 32 ;
33 [label="gini = 0.0\nsamples = 2\nvalue = [2, 0, 0, 0, 0]\nclass = PRAD", fillcolor="#e58139ff"] ;
32 -> 33 ;
34 [label="gini = 0.0\nsamples = 1\nvalue = [0, 1, 0, 0, 0]\nclass = LUAD", fillcolor="#7be539ff"] ;
32 -> 34 ;
35 [label="pca_1 <= -9.47\ngini = 0.67\nsamples = 89\nvalue = [29, 18, 0, 66, 23]\nclass = KIRC", fillcolor="#3c39e558"] ;
1 -> 35 ;
36 [label="pca_2 <= -20.08\ngini = 0.49\nsamples = 35\nvalue = [29, 0, 0, 0, 23]\nclass = PRAD", fillcolor="#e5813935"] ;
35 -> 36 ;
37 [label="gini = 0.0\nsamples = 16\nvalue = [0, 0, 0, 0, 22]\nclass = COAD", fillcolor="#e539c0ff"] ;
36 -> 37 ;
38 [label="pca_3 <= 14.12\ngini = 0.06\nsamples = 19\nvalue = [29, 0, 0, 0, 1]\nclass = PRAD", fillcolor="#e58139f6"] ;
36 -> 38 ;
39 [label="gini = 0.0\nsamples = 18\nvalue = [29, 0, 0, 0, 0]\nclass = PRAD", fillcolor="#e58139ff"] ;
38 -> 39 ;
40 [label="gini = 0.0\nsamples = 1\nvalue = [0, 0, 0, 0, 1]\nclass = COAD", fillcolor="#e539c0ff"] ;
38 -> 40 ;
41 [label="pca_6 <= -10.34\ngini = 0.34\nsamples = 54\nvalue = [0, 18, 0, 66, 0]\nclass = KIRC", fillcolor="#3c39e5b9"] ;
35 -> 41 ;
42 [label="pca_20 <= -1.73\ngini = 0.48\nsamples = 10\nvalue = [0, 10, 0, 7, 0]\nclass = LUAD", fillcolor="#7be5394d"] ;
41 -> 42 ;
43 [label="gini = 0.0\nsamples = 4\nvalue = [0, 0, 0, 5, 0]\nclass = KIRC", fillcolor="#3c39e5ff"] ;
42 -> 43 ;
44 [label="pca_3 <= 15.05\ngini = 0.28\nsamples = 6\nvalue = [0, 10, 0, 2, 0]\nclass = LUAD", fillcolor="#7be539cc"] ;
42 -> 44 ;
45 [label="gini = 0.0\nsamples = 2\nvalue = [0, 0, 0, 2, 0]\nclass = KIRC", fillcolor="#3c39e5ff"] ;
44 -> 45 ;
46 [label="gini = 0.0\nsamples = 4\nvalue = [0, 10, 0, 0, 0]\nclass = LUAD", fillcolor="#7be539ff"] ;
44 -> 46 ;
47 [label="pca_2 <= 33.08\ngini = 0.21\nsamples = 44\nvalue = [0, 8, 0, 59, 0]\nclass = KIRC", fillcolor="#3c39e5dc"] ;
41 -> 47 ;
48 [label="gini = 0.0\nsamples = 37\nvalue = [0, 0, 0, 59, 0]\nclass = KIRC", fillcolor="#3c39e5ff"] ;
47 -> 48 ;
49 [label="gini = 0.0\nsamples = 7\nvalue = [0, 8, 0, 0, 0]\nclass = LUAD", fillcolor="#7be539ff"] ;
47 -> 49 ;
50 [label="gini = 0.0\nsamples = 79\nvalue = [0, 0, 117, 0, 0]\nclass = BRCA", fillcolor="#39e5c5ff"] ;
0 -> 50 [labeldistance=2.5, labelangle=-45, headlabel="False"] ;
}